/* Generated by Edge Impulse
 *
 * Permission is hereby granted, free of charge, to any person obtaining a copy
 * of this software and associated documentation files (the "Software"), to deal
 * in the Software without restriction, including without limitation the rights
 * to use, copy, modify, merge, publish, distribute, sublicense, and/or sell
 * copies of the Software, and to permit persons to whom the Software is
 * furnished to do so, subject to the following conditions:
 *
 * The above copyright notice and this permission notice shall be included in
 * all copies or substantial portions of the Software.
 *
 * THE SOFTWARE IS PROVIDED "AS IS", WITHOUT WARRANTY OF ANY KIND, EXPRESS OR
 * IMPLIED, INCLUDING BUT NOT LIMITED TO THE WARRANTIES OF MERCHANTABILITY,
 * FITNESS FOR A PARTICULAR PURPOSE AND NONINFRINGEMENT. IN NO EVENT SHALL THE
 * AUTHORS OR COPYRIGHT HOLDERS BE LIABLE FOR ANY CLAIM, DAMAGES OR OTHER
 * LIABILITY, WHETHER IN AN ACTION OF CONTRACT, TORT OR OTHERWISE, ARISING FROM,
 * OUT OF OR IN CONNECTION WITH THE SOFTWARE OR THE USE OR OTHER DEALINGS IN THE
 * SOFTWARE.
 */
// Generated on: 06.09.2022 09:21:25

#include <stdio.h>
#include <stdlib.h>
#include "edge-impulse-sdk/tensorflow/lite/c/builtin_op_data.h"
#include "edge-impulse-sdk/tensorflow/lite/c/common.h"
#include "edge-impulse-sdk/tensorflow/lite/micro/micro_mutable_op_resolver.h"
#include "edge-impulse-sdk/porting/ei_classifier_porting.h"

#if EI_CLASSIFIER_PRINT_STATE
#if defined(__cplusplus) && EI_C_LINKAGE == 1
extern "C" {
    extern void ei_printf(const char *format, ...);
}
#else
extern void ei_printf(const char *format, ...);
#endif
#endif

#if defined __GNUC__
#define ALIGN(X) __attribute__((aligned(X)))
#elif defined _MSC_VER
#define ALIGN(X) __declspec(align(X))
#elif defined __TASKING__
#define ALIGN(X) __align(X)
#endif

#ifndef EI_MAX_SCRATCH_BUFFER_COUNT
#define EI_MAX_SCRATCH_BUFFER_COUNT 4
#endif // EI_MAX_SCRATCH_BUFFER_COUNT

#ifndef EI_MAX_OVERFLOW_BUFFER_COUNT
#define EI_MAX_OVERFLOW_BUFFER_COUNT 10
#endif // EI_MAX_OVERFLOW_BUFFER_COUNT

using namespace tflite;
using namespace tflite::ops;
using namespace tflite::ops::micro;

namespace {

constexpr int kTensorArenaSize = 672;

#if defined(EI_CLASSIFIER_ALLOCATION_STATIC)
uint8_t tensor_arena[kTensorArenaSize] ALIGN(16);
#elif defined(EI_CLASSIFIER_ALLOCATION_STATIC_HIMAX)
#pragma Bss(".tensor_arena")
uint8_t tensor_arena[kTensorArenaSize] ALIGN(16);
#pragma Bss()
#elif defined(EI_CLASSIFIER_ALLOCATION_STATIC_HIMAX_GNU)
uint8_t tensor_arena[kTensorArenaSize] ALIGN(16) __attribute__((section(".tensor_arena")));
#else
#define EI_CLASSIFIER_ALLOCATION_HEAP 1
uint8_t* tensor_arena = NULL;
#endif

static uint8_t* tensor_boundary;
static uint8_t* current_location;

template <int SZ, class T> struct TfArray {
  int sz; T elem[SZ];
};
enum used_operators_e {
  OP_FULLY_CONNECTED, OP_SOFTMAX,  OP_LAST
};
struct TensorInfo_t { // subset of TfLiteTensor used for initialization from constant memory
  TfLiteAllocationType allocation_type;
  void* data;
  TfLiteIntArray* dims;
  size_t bytes;
};
struct NodeInfo_t { // subset of TfLiteNode used for initialization from constant memory
  struct TfLiteIntArray* inputs;
  struct TfLiteIntArray* outputs;
  void* builtin_data;
  used_operators_e used_op_index;
};

TfLiteContext ctx{};
TfLiteTensor tflTensors[11];
TfLiteEvalTensor tflEvalTensors[11];
TfLiteRegistration registrations[OP_LAST];
TfLiteNode tflNodes[4];

const TfArray<2, int> tensor_dimension0 = { 2, { 1,99 } };
const ALIGN(16) float tensor_data1[6] = { -2.5765213966369629, -3.1151931285858154, 2.7064518928527832, -0.31810545921325684, -2.4587955474853516, 6.178065299987793, };
const TfArray<1, int> tensor_dimension1 = { 1, { 6 } };
const ALIGN(16) float tensor_data2[10] = { 0.15294304490089417, -0.19823385775089264, -0.075868979096412659, 0.55479544401168823, 1.3861933946609497, -0.28027918934822083, 1.6962440013885498, -0.32030946016311646, -0.26867306232452393, -0.45684713125228882, };
const TfArray<1, int> tensor_dimension2 = { 1, { 10 } };
const ALIGN(16) float tensor_data3[20] = { 0.47824898362159729, -0.041190743446350098, -0.016796968877315521, -0.15574730932712555, 0.66760241985321045, -0.24046675860881805, -0.4211500883102417, 0.8130529522895813, -0.059906881302595139, 1.0672298669815063, 0.510364830493927, 0.0051793251186609268, -0.23134599626064301, -0.40417271852493286, 0.71759110689163208, -0.092316605150699615, -0.34374400973320007, -0.022193612530827522, 0, 0.15152880549430847, };
const TfArray<1, int> tensor_dimension3 = { 1, { 20 } };
const ALIGN(16) float tensor_data4[20*99] = { 
  -0.96436560153961182, 2.8050017356872559, -11.545744895935059, 0.5640903115272522, 0.81894117593765259, 0.65386897325515747, 0.20380371809005737, 0.50450593233108521, 0.72374582290649414, 0.68655300140380859, 0.56108266115188599, -0.52719360589981079, 0.59904569387435913, -3.174461841583252, 1.3173854351043701, 0.99031180143356323, 0.72356784343719482, 0.35774141550064087, 0.57263374328613281, 0.4535362720489502, 0.58323925733566284, 0.15154092013835907, -0.57435286045074463, -9.6496725082397461, -0.34633657336235046, 1.1323467493057251, 0.85695070028305054, 0.89992576837539673, 0.58559906482696533, 0.68699371814727783, 0.87981432676315308, 0.57086879014968872, 0.69353312253952026, 0.21601758897304535, 2.2611260414123535, -11.268718719482422, 0.54819834232330322, 1.1616742610931396, 0.94280946254730225, 0.66225212812423706, 1.1003210544586182, 1.3438807725906372, 1.0986016988754272, 0.81224530935287476, 0.031127821654081345, -1.568520188331604, -3.3833730220794678, 1.383644700050354, 0.82434761524200439, 0.74273222684860229, 0.72458207607269287, 0.82048684358596802, 0.66401773691177368, 0.80610573291778564, 0.60318487882614136, 0.22905208170413971, -9.9471349716186523, -0.095597490668296814, 1.1929677724838257, 0.93261337280273438, 0.76639586687088013, 0.59984695911407471, 0.5968279242515564, 0.81505239009857178, 0.60225862264633179, 0.57814985513687134, -0.003208208130672574, -0.86765050888061523, 4.6443061828613281, 0.86261767148971558, 0.73492622375488281, 0.49268534779548645, 0.65136677026748657, 0.63353621959686279, 0.41402742266654968, 0.81122225522994995, 0.79559707641601562, 0.0018185734516009688, 0.69911742210388184, -2.2975776195526123, 0.71340155601501465, 0.55296164751052856, 0.39224392175674438, 0.38772463798522949, 0.33486753702163696, 0.4641793966293335, 0.25590598583221436, 0.29292520880699158, 0.0097608612850308418, -3.8480162620544434, -4.2113280296325684, 0.45270147919654846, 0.59679341316223145, 0.6059383749961853, 0.42305281758308411, 0.41404610872268677, 0.59706926345825195, 0.56855106353759766, 0.4176100492477417, 
  -0.010608562268316746, 0.080677822232246399, 0.056576196104288101, -0.12818685173988342, 0.0011353616137057543, 0.16494797170162201, 0.098941758275032043, 0.14097504317760468, -0.21961586177349091, 0.10694088786840439, 0.079105585813522339, -0.13932265341281891, -0.0010432901326566935, -0.14925655722618103, -0.16856127977371216, -0.13276374340057373, -0.12638048827648163, -0.22825562953948975, 0.1106874868273735, 0.057145204395055771, -0.057877220213413239, -0.1626870334148407, -0.22868034243583679, -0.12682513892650604, 0.10451610386371613, -0.1695844978094101, 0.0076072374358773232, 0.057852383702993393, -0.16356146335601807, -0.032591775059700012, 0.13325588405132294, 0.16133101284503937, -0.25425434112548828, -0.080015949904918671, -0.17193081974983215, 0.23926155269145966, -0.1150796189904213, 0.078020110726356506, 0.11011919379234314, -0.15252648293972015, -0.1566229909658432, -0.0051649422384798527, 0.0010060543427243829, -0.035458799451589584, -0.21731016039848328, -0.24808570742607117, 0.10125219076871872, -0.052739538252353668, -0.083429493010044098, -0.16440491378307343, 0.094226241111755371, 0.17611658573150635, -0.24459844827651978, -0.14913551509380341, 0.15771040320396423, -0.085131607949733734, -0.18297290802001953, 0.25891676545143127, -0.087259694933891296, -0.21045984327793121, 0.14323855936527252, -0.028506083413958549, -0.16927297413349152, 0.087790772318840027, -0.12141481041908264, -0.15812559425830841, 0.041412148624658585, -0.12950590252876282, 0.16855037212371826, -0.095450997352600098, -0.26578754186630249, 0.071085460484027863, -0.10072781890630722, -0.16460825502872467, 0.074137113988399506, -0.017495561391115189, -0.21220667660236359, -0.23328728973865509, 0.11407097429037094, -0.16630977392196655, 0.12713991105556488, -0.17239964008331299, -0.2316347062587738, -0.26283487677574158, -0.14244787395000458, -0.073649592697620392, -0.22185586392879486, 0.13079310953617096, -0.10778864473104477, -0.17199942469596863, 0.20742841064929962, -0.053959313780069351, -0.23134636878967285, -0.19719617068767548, -0.26654970645904541, 0.14422084391117096, -0.033825591206550598, 0.14524824917316437, -0.26234427094459534, 
  -0.045000761747360229, -0.22550733387470245, -0.15858560800552368, 0.063052766025066376, -0.029011022299528122, 0.021958388388156891, -0.23933511972427368, -0.079827085137367249, -0.16597996652126312, -0.004609186202287674, -0.10128111392259598, -0.096887968480587006, -0.15484176576137543, -0.029425537213683128, 0.087935812771320343, -0.21366468071937561, -0.17889285087585449, -0.078749224543571472, 0.15827850997447968, -0.23909428715705872, 0.12384595721960068, -0.056756913661956787, -0.15818755328655243, 0.083128862082958221, -0.088504165410995483, 0.15660536289215088, -0.0040528313256800175, -0.14026652276515961, -0.061116479337215424, -0.15838867425918579, -0.16982465982437134, 0.14124947786331177, -0.21824496984481812, 0.044021472334861755, -0.15755797922611237, 0.088468149304389954, 0.021847182884812355, -0.059954758733510971, -0.13627128303050995, -0.16700653731822968, 0.15384696424007416, -0.067664377391338348, -0.03478410467505455, -0.044997494667768478, -0.095925495028495789, 0.016322232782840729, 0.17488110065460205, -0.08647754043340683, 0.19450655579566956, -0.20144684612751007, 0.17798623442649841, -0.03228754922747612, 0.014018137007951736, -0.1797705739736557, 0.11437027901411057, 0.057222384959459305, 0.1933140903711319, 0.073811993002891541, 0.030859161168336868, 0.12827129662036896, 0.041946873068809509, -0.24897964298725128, -0.23094242811203003, 0.040666244924068451, 0.065807253122329712, -0.20017166435718536, -0.15059396624565125, 0.022316472604870796, 0.14328792691230774, 0.16508716344833374, 0.12635162472724915, 0.062138013541698456, -0.11623025685548782, 0.17913427948951721, -0.10929606109857559, 0.095334753394126892, -0.18754744529724121, -0.10062059015035629, -0.16784578561782837, -0.041142541915178299, 0.017292540520429611, -0.13798357546329498, -0.19416311383247375, 0.036799430847167969, 0.14706328511238098, 0.18340778350830078, -0.053513176739215851, 0.083128489553928375, -0.20363786816596985, 0.05353313684463501, -0.044059712439775467, 0.021407613530755043, -0.24598896503448486, -0.10397594422101974, 0.18386903405189514, 0.04177691787481308, 0.11538854986429214, -0.05751931294798851, 0.071528702974319458, 
  -0.40184089541435242, -0.032777465879917145, -0.091299355030059814, -0.064515277743339539, -0.091244213283061981, -0.083675213158130646, -0.30261406302452087, -0.11127112060785294, -0.10898156464099884, 0.046438299119472504, -0.14432375133037567, -0.29370585083961487, -0.07430141419172287, 0.23085737228393555, -0.11666436493396759, -0.23208118975162506, -0.17843331396579742, -0.1635948121547699, 0.096518784761428833, 0.020481158047914505, -0.3316846489906311, -0.25035727024078369, 0.12909418344497681, -0.062462728470563889, 0.058986064046621323, 0.079156883060932159, -0.086609490215778351, -0.1667691171169281, 0.078359097242355347, -0.041860025376081467, -0.076417624950408936, 0.086483113467693329, -0.065201073884963989, -0.36451080441474915, -0.022230293601751328, 0.29300567507743835, -0.098268955945968628, -0.18500478565692902, -0.30422574281692505, -0.12834814190864563, -0.12295545637607574, -0.17345459759235382, -0.18584266304969788, -0.013875581324100494, -0.2647937536239624, -0.13399791717529297, 0.29402220249176025, -0.29931718111038208, 0.0072157233953475952, 0.020260000601410866, 0.076210178434848785, -0.23865614831447601, -0.19076474010944366, 0.092619702219963074, -0.30805346369743347, -0.22790418565273285, 0.066643834114074707, 0.077007211744785309, -0.0022401572205126286, -0.28371709585189819, -0.33554747700691223, -0.24793232977390289, -0.17106802761554718, 0.021778590977191925, -0.24453003704547882, -0.059083659201860428, -0.14184199273586273, -0.12050358206033707, -0.031242802739143372, -0.065545104444026947, -0.037394274026155472, -0.21833455562591553, -0.14113309979438782, -0.27261906862258911, -0.1112479642033577, -0.29730695486068726, -0.32683774828910828, -0.051769431680440903, -0.14269299805164337, 0.25645262002944946, -0.03133055567741394, -0.2825685441493988, -0.28120920062065125, -0.13263452053070068, -0.042549870908260345, -0.03641200065612793, 0.012227275408804417, -0.27320286631584167, 0.028718188405036926, -0.2001512199640274, 0.10283558070659637, -0.3120063841342926, -0.24778014421463013, -0.023225912824273109, -0.032969731837511063, -0.34718862175941467, -0.32928574085235596, -0.25450444221496582, -0.039486490190029144, 
  0.33332249522209167, -0.27075076103210449, -1.4498364925384521, 0.92277204990386963, -0.087346583604812622, -0.5425141453742981, -1.5374670028686523, -1.6067965030670166, -1.5006618499755859, -1.3348064422607422, -1.4708560705184937, 0.49068504571914673, 1.4834431409835815, -1.2760831117630005, 0.5684208869934082, 0.90501272678375244, 0.90998917818069458, 1.1296815872192383, 1.1462134122848511, 1.2353324890136719, 1.1752760410308838, 1.2758477926254272, 0.86940044164657593, -1.6086337566375732, -0.3421638011932373, 0.5840604305267334, 0.37528142333030701, -0.18086521327495575, -0.45490929484367371, -0.63779520988464355, -0.5618167519569397, -0.7376176118850708, -0.84871530532836914, 0.12713739275932312, -1.4072470664978027, -0.25950759649276733, 0.65138566493988037, 0.0058298101648688316, -0.47741124033927917, -0.4205881655216217, -0.75715893507003784, -1.4728684425354004, -1.4040782451629639, -0.92905843257904053, -0.084834650158882141, -0.49638339877128601, -0.71821820735931396, 0.71618622541427612, 0.65961980819702148, 0.61172163486480713, 0.73551219701766968, 0.292144775390625, 0.56236797571182251, 0.3755640983581543, 0.82208549976348877, -0.022972702980041504, 1.0046451091766357, 0.54729187488555908, 0.61446315050125122, 0.573935866355896, 0.22657510638237, 0.38983258605003357, 0.17143499851226807, 0.27404144406318665, 0.40049284696578979, 0.21298599243164062, -0.10028235614299774, 2.5495350360870361, -1.8639088869094849, 0.41101342439651489, 0.35858497023582458, 0.46889564394950867, 0.44097378849983215, 0.51233547925949097, 0.42469221353530884, 0.53935599327087402, 0.52322220802307129, 0.0063921301625669003, -1.3260520696640015, -1.3076573610305786, 0.60345923900604248, 0.54201781749725342, 0.54239064455032349, 0.23705381155014038, 0.52064579725265503, 0.33813443779945374, 0.33257779479026794, 0.2400888204574585, -0.035171672701835632, -1.8439795970916748, -2.5996687412261963, 0.49622088670730591, 0.49216225743293762, 0.2660195529460907, 0.51412975788116455, 0.33241266012191772, 0.24145635962486267, 0.40752443671226501, 0.50151604413986206, 
  1.5531363487243652, -4.1676349639892578, 6.110567569732666, -0.51547586917877197, -0.31281772255897522, -0.18545663356781006, -0.093007184565067291, -0.2038901299238205, -0.24082739651203156, -0.45073232054710388, -0.23215952515602112, 0.26751592755317688, -0.12499333173036575, 0.87498760223388672, -0.61770623922348022, -0.028688840568065643, 0.03082646057009697, 0.29100576043128967, 0.45215335488319397, 0.41594269871711731, 0.24001847207546234, 0.11608588695526123, 0.96163845062255859, 6.7588014602661133, 0.85816794633865356, -0.80217397212982178, -0.37934035062789917, -0.30873584747314453, -0.060628391802310944, -0.085801176726818085, -0.18794763088226318, 0.074354223906993866, -0.12597429752349854, 0.62525475025177002, -3.1707532405853271, 5.6195049285888672, -0.59112060070037842, -0.38913676142692566, -0.19632233679294586, -0.48025807738304138, -0.46068745851516724, -0.38282212615013123, -0.26480352878570557, -0.26123636960983276, -0.27821806073188782, 1.6603908538818359, 0.78083264827728271, -0.76848381757736206, -0.31194093823432922, -0.098619811236858368, -0.048048660159111023, 0.05275397002696991, -0.13881762325763702, -0.024676352739334106, 0.027564117684960365, 0.079946927726268768, 6.8238449096679688, 1.5710806846618652, -0.9131464958190918, -0.43014621734619141, -0.37357914447784424, -0.31322771310806274, -0.088554508984088898, -0.28901645541191101, -0.2169623076915741, -0.29139551520347595, 0.0032258532010018826, 2.2434108257293701, -3.8844249248504639, -0.81103610992431641, -0.31273084878921509, -0.25438034534454346, -0.32667213678359985, -0.33430662751197815, -0.078747838735580444, -0.32130536437034607, -0.14229598641395569, -0.00015894435637164861, -2.0546624660491943, 1.3619801998138428, -0.57623130083084106, -0.035083018243312836, 0.010917016305029392, 0.02000746876001358, 0.18777741491794586, 0.20576021075248718, -0.087732985615730286, 0.098735123872756958, -0.001271941582672298, 4.2807722091674805, 2.3069791793823242, -0.27151888608932495, -0.33689704537391663, -0.06672956794500351, -0.25482288002967834, -0.090716183185577393, 0.0028223458211869001, 0.11218354105949402, -0.23763057589530945, 
  -0.297446608543396, -0.36689856648445129, 0.14955970644950867, -0.3420429527759552, -0.18588034808635712, -0.0031492267735302448, 0.015440618619322777, -0.056515976786613464, -0.060925036668777466, 0.1423867791891098, -0.17678409814834595, -0.13050934672355652, -0.39932453632354736, -0.15626436471939087, -0.13244456052780151, -0.14690999686717987, -0.21791668236255646, -0.052929487079381943, -0.064990729093551636, -0.17579439282417297, -0.062949232757091522, -0.14518789947032928, 0.065591953694820404, -0.37242898344993591, 0.36500230431556702, -0.3827037513256073, -0.363331139087677, -0.20166529715061188, -0.17990730702877045, -0.25772237777709961, -0.056401073932647705, -0.24175798892974854, -0.33803668618202209, -0.16558332741260529, -0.72548186779022217, 0.12821444869041443, -0.23694902658462524, 0.013659381307661533, -0.094210349023342133, -0.1879710853099823, 0.1157713308930397, -0.0043662679381668568, -0.22576668858528137, -0.16980978846549988, 0.0065154163166880608, 0.21137705445289612, 0.18475931882858276, -0.14325021207332611, -0.097581326961517334, -0.089692689478397369, -0.094174623489379883, -0.11743701994419098, 0.031004387885332108, -0.20427089929580688, -0.34472408890724182, -0.023249074816703796, -0.47185373306274414, 0.36917209625244141, -0.37448340654373169, -0.23609927296638489, -0.17092077434062958, -0.31649178266525269, -0.18649753928184509, -0.25416284799575806, -0.2951807975769043, -0.41230106353759766, -0.052598390728235245, 0.0525362528860569, 0.47178593277931213, -0.39619690179824829, -0.51925003528594971, -0.20020638406276703, -0.3558308482170105, -0.21308831870555878, -0.38580194115638733, -0.42936387658119202, -0.25768205523490906, -0.035237792879343033, -0.016586184501647949, 0.29341134428977966, -0.24637807905673981, -0.26640766859054565, -0.37230467796325684, -0.29431489109992981, -0.17817679047584534, -0.39123716950416565, -0.37726747989654541, -0.12097903341054916, 0.0077249105088412762, 0.14547932147979736, 0.22405296564102173, -0.41501900553703308, -0.34250307083129883, -0.17918217182159424, -0.55311930179595947, -0.31058329343795776, -0.19465120136737823, -0.5001528263092041, -0.14405210316181183, 
  1.35225510597229, -0.083267733454704285, -2.1394214630126953, 0.21182286739349365, 0.20629067718982697, 0.50635915994644165, 0.057197920978069305, -0.15831360220909119, 0.14619046449661255, -0.23548111319541931, -0.11750773340463638, -0.083114184439182281, -1.1810619831085205, 1.4734741449356079, -0.23786851763725281, 0.59742075204849243, 0.54138064384460449, 0.36154219508171082, 0.50957739353179932, 0.67275679111480713, 0.39486515522003174, 0.30185586214065552, 2.3951961994171143, -3.7544910907745361, -0.023805392906069756, -0.69802212715148926, 0.43930238485336304, -0.059575539082288742, -0.51252251863479614, -0.19356870651245117, -0.024266721680760384, -0.30027547478675842, -1.1543446779251099, 0.759266197681427, -0.16701345145702362, -1.7820627689361572, -0.026697158813476562, 0.41981077194213867, 0.32842540740966797, 0.29034614562988281, 0.080508537590503693, -0.10253986716270447, 0.062311518937349319, -0.13669566810131073, -0.25711682438850403, 1.0139391422271729, 0.55529534816741943, 0.13730992376804352, 0.66915059089660645, 0.53450638055801392, 0.76007956266403198, 0.56218773126602173, 0.62796181440353394, 0.6605299711227417, 0.60619741678237915, 0.030755966901779175, -2.8872208595275879, 0.70472335815429688, -0.20082661509513855, 0.68745386600494385, 0.49423938989639282, 0.38814729452133179, 0.49629780650138855, 1.2790874242782593, 0.22633634507656097, 0.22549678385257721, 0.019099371507763863, 0.7990339994430542, -0.074159897863864899, 0.17654941976070404, 0.29384306073188782, 0.65371394157409668, 0.34424126148223877, 0.66759723424911499, 0.57502686977386475, 0.55453360080718994, 0.43457069993019104, -0.056148387491703033, 1.4118984937667847, 0.3850538432598114, 0.74505817890167236, 0.80933225154876709, 0.56516623497009277, 0.52837926149368286, 0.44217565655708313, 0.66272640228271484, 0.71297413110733032, 0.34910351037979126, -0.030519617721438408, 0.13759820163249969, -2.5395951271057129, 0.15819045901298523, 0.4578450620174408, 0.38713857531547546, 0.37581875920295715, 0.45521566271781921, 0.49524205923080444, 0.42032706737518311, 0.38354745507240295, 
  -0.0023459235671907663, 0.12463928014039993, 0.14882838726043701, -0.27559125423431396, 0.075040288269519806, 0.03861430287361145, -0.13609814643859863, -0.10824666917324066, 0.02890404686331749, -0.23911003768444061, -0.28503924608230591, 0.14653119444847107, 0.0088030872866511345, -0.049835585057735443, -0.28660207986831665, -0.20049527287483215, -0.024858839809894562, -0.10209792107343674, 0.095888696610927582, -0.065777450799942017, -0.09138081967830658, -0.12669317424297333, -0.11105073243379593, -0.10578241944313049, -0.054830208420753479, 0.1322113424539566, -0.25561615824699402, -0.015017779543995857, 0.10989329218864441, -0.069615975022315979, -0.14444546401500702, 0.015624213963747025, -0.16317827999591827, 0.017880415543913841, 0.18611815571784973, 0.13432265818119049, -0.09820576012134552, -0.038309473544359207, -0.25281086564064026, -0.010461284779012203, 0.046918436884880066, -0.24621656537055969, -0.22045420110225677, 0.082451678812503815, -0.12569601833820343, 0.021806104108691216, 0.20941147208213806, 0.045454081147909164, -0.21805614233016968, 0.12464652210474014, -0.28586536645889282, -0.22913210093975067, -0.016803430393338203, -0.21872445940971375, -0.12893660366535187, -0.070626452565193176, -0.17396731674671173, 0.11623568832874298, 0.065677173435688019, -0.00090115505736321211, -0.10313832759857178, 0.096761308610439301, -0.1844625324010849, 0.153121218085289, 0.12264686077833176, 0.12820155918598175, -0.27271580696105957, 0.017642131075263023, 0.054198741912841797, -0.28364294767379761, 0.025645742192864418, -0.20717757940292358, 0.039235256612300873, 0.15875113010406494, -0.21468125283718109, 0.14338399469852448, 0.034893855452537537, 0.041566729545593262, 0.20348447561264038, 0.026818849146366119, -0.16438890993595123, -0.11832617223262787, 0.090551815927028656, -0.13797570765018463, 0.049585882574319839, -0.083248287439346313, 0.035612843930721283, 0.018809711560606956, 0.022950084879994392, -0.021095722913742065, 0.23612600564956665, -0.098280884325504303, -0.27107596397399902, -0.11681701987981796, -0.0469183549284935, 0.027276881039142609, -0.10765383392572403, -0.26207640767097473, 0.14214025437831879, 
  -0.85186082124710083, 1.3247342109680176, 0.50800549983978271, 2.3184752464294434, 0.56051790714263916, 0.79070949554443359, 0.80462545156478882, 0.4537656307220459, 0.0024181846529245377, 0.36450350284576416, 0.59621119499206543, 0.027673672884702682, 1.4787319898605347, -1.9270685911178589, 1.5176540613174438, 0.18618452548980713, 0.15727809071540833, 0.35426422953605652, -0.077095702290534973, -0.72240597009658813, -0.27762195467948914, -0.25967660546302795, 0.5295482873916626, 0.82408660650253296, -0.28702190518379211, 2.5475728511810303, 1.4559317827224731, 1.3671000003814697, 1.8814122676849365, 1.4848407506942749, 0.90159070491790771, 1.3831580877304077, 1.6113367080688477, -0.81144571304321289, -0.11151023209095001, 0.77831655740737915, 2.0251805782318115, 0.98454087972640991, 0.92953681945800781, 1.4024326801300049, 0.66081017255783081, 0.10469769686460495, 0.83133554458618164, 1.3075305223464966, 0.15520322322845459, -2.1823663711547852, -2.6743731498718262, 1.4775341749191284, 0.28739285469055176, 0.35328823328018188, 0.17467018961906433, 0.096246495842933655, -0.4971814751625061, -0.049025516957044601, 0.14247098565101624, -0.25217977166175842, 0.89738482236862183, -1.9846116304397583, 2.3272624015808105, 1.3295097351074219, 1.0987597703933716, 1.3129066228866577, 1.2896202802658081, 0.74237388372421265, 1.2497434616088867, 1.5392025709152222, -0.0036606190260499716, -1.1495749950408936, -2.027005672454834, 1.2780088186264038, 0.530414879322052, 0.43055522441864014, 0.44633325934410095, 0.49863466620445251, 0.38121345639228821, 0.43288370966911316, 0.65808922052383423, -0.01677992008626461, 1.1503868103027344, -0.10840596258640289, 1.1388182640075684, 0.30125561356544495, 0.40799397230148315, 0.57079923152923584, 0.21844601631164551, 0.37686845660209656, 0.34299743175506592, 0.37426459789276123, -0.014619898051023483, -3.599576473236084, 0.38071754574775696, 0.98522740602493286, 0.66048216819763184, 0.3873334527015686, 0.44348984956741333, 0.46786150336265564, 0.42054292559623718, 0.32795009016990662, 0.41533517837524414, 
  1.7012413740158081, -2.3841543197631836, -2.6688134670257568, -1.2815886735916138, 0.42841288447380066, -0.088373042643070221, -0.19609381258487701, -0.03146851435303688, 0.60444855690002441, 0.14005748927593231, -0.29049554467201233, 0.01777280680835247, -0.20098422467708588, -0.66859591007232666, -1.0192743539810181, 0.34895819425582886, 0.39833757281303406, 0.58205437660217285, 0.62193328142166138, 0.98004615306854248, 0.61796915531158447, 0.53982925415039062, 1.0873997211456299, -4.6433267593383789, 1.8027526140213013, -1.8133660554885864, -0.61249846220016479, -0.58661854267120361, -1.0994127988815308, -0.97021454572677612, -0.086646378040313721, -0.87689042091369629, -1.559913158416748, 0.78812897205352783, -1.4987144470214844, -1.9587109088897705, -1.2209049463272095, 0.076940171420574188, -0.37700706720352173, -0.56315869092941284, -0.38766393065452576, 0.30089157819747925, -0.13009557127952576, -0.45718970894813538, -0.1946418285369873, 1.1066169738769531, -0.71952992677688599, -0.85542440414428711, 0.34370240569114685, 0.23080441355705261, 0.57447338104248047, 0.4671604335308075, 0.67993444204330444, 0.61162197589874268, 0.57186579704284668, -0.0038813990540802479, -4.9126548767089844, 3.2413461208343506, -1.7262591123580933, 0.14642030000686646, -0.46311861276626587, -0.69699913263320923, -0.25480654835700989, 0.0060071074403822422, -0.5785897970199585, -0.98101311922073364, -0.0054569607600569725, -0.23348513245582581, 1.5611859560012817, -0.27050846815109253, 0.51287096738815308, 0.50640904903411865, 0.32281246781349182, 0.47043129801750183, 0.84149235486984253, 0.49345758557319641, 0.29221805930137634, 0.00045077002141624689, -1.0932034254074097, -1.1824790239334106, 0.16008670628070831, 0.82840585708618164, 0.43716999888420105, 0.31099811196327209, 0.42686516046524048, 0.88573014736175537, 0.71632403135299683, 0.38738924264907837, -0.014585559256374836, 1.6504092216491699, -0.81186240911483765, 0.11177226155996323, 0.82711613178253174, 0.64940798282623291, 0.6201317310333252, 0.56518781185150146, 1.0722404718399048, 0.6868661642074585, 0.77340638637542725, 
  -0.72313737869262695, -0.022532755509018898, -0.63364338874816895, -0.69329273700714111, -0.59224116802215576, -0.62851834297180176, -0.64579367637634277, -0.45252645015716553, -0.43399724364280701, -0.25775131583213806, -0.46440508961677551, 0.48867872357368469, -0.16047400236129761, 1.0502007007598877, 0.41831645369529724, 0.86800962686538696, 1.0852959156036377, 1.154852032661438, 1.5694475173950195, 1.568901538848877, 1.7359451055526733, 1.2603811025619507, -0.88272362947463989, -0.18092823028564453, 0.96906399726867676, -0.3986518383026123, -0.077679760754108429, 0.1670074462890625, -0.41325277090072632, 0.13400375843048096, -0.11536949872970581, 0.13056156039237976, -0.33030489087104797, -0.73756295442581177, -1.3735194206237793, 0.30549934506416321, -0.029335195198655128, 0.16831785440444946, 0.22021360695362091, -0.3638451099395752, -0.09378419816493988, -0.019090723246335983, -0.27442136406898499, -0.75873672962188721, 0.093693740665912628, -1.1616173982620239, -0.1174330860376358, 0.47407001256942749, 0.49438610672950745, 0.72877728939056396, 0.56012493371963501, 0.89560157060623169, 1.0400276184082031, 1.2731789350509644, 0.99535185098648071, -0.28753829002380371, -0.0031499911565333605, 0.76216202974319458, -0.25609564781188965, 0.12396276742219925, 0.080821618437767029, 0.063393265008926392, 0.37281343340873718, 0.041972976177930832, 0.27920112013816833, 0.26027664542198181, -0.0043821181170642376, -2.7757823467254639, 0.24316897988319397, 0.15948823094367981, 0.025854302570223808, 0.037595253437757492, 0.14416824281215668, 0.36513704061508179, 0.1459735631942749, 0.21739885210990906, 0.0053040436469018459, -0.017808208242058754, 1.3734188079833984, -1.7784112691879272, -0.16952809691429138, 0.043487548828125, 0.22824394702911377, 0.33525586128234863, 0.20805756747722626, 0.10493404418230057, 0.32348120212554932, 0.38207253813743591, -0.075492329895496368, -2.0990166664123535, -1.2122360467910767, 0.24129216372966766, 0.13812838494777679, -0.088938340544700623, -0.14109550416469574, -0.11728773266077042, 0.058581676334142685, 0.17871175706386566, 0.008816523477435112, 
  -0.97287654876708984, 0.067278832197189331, 0.80954700708389282, -0.39351007342338562, 0.39768296480178833, 0.13741934299468994, 0.43119177222251892, 0.23652227222919464, 0.54674726724624634, 0.58523827791213989, 0.49241411685943604, -1.5653760433197021, -0.28186362981796265, -0.41438430547714233, 0.55985534191131592, 0.18578644096851349, 0.6795271635055542, 0.49931523203849792, 0.55089342594146729, 0.61673539876937866, 0.6362689733505249, 0.60126316547393799, -0.28582525253295898, 0.79920297861099243, 0.11445406824350357, 0.31388917565345764, 0.35846033692359924, 1.0723190307617188, 1.5190532207489014, 1.2221840620040894, 1.076280951499939, 1.3445737361907959, 1.5839263200759888, -0.6679152250289917, -0.14299352467060089, 0.40133720636367798, -0.22388920187950134, 0.24194836616516113, 0.17052601277828217, 0.37215620279312134, 0.399669349193573, 0.64815914630889893, 0.56758320331573486, 0.38236138224601746, -1.3782995939254761, 0.24638849496841431, 0.19335955381393433, 0.22366023063659668, 0.30395111441612244, 0.62234503030776978, 0.43454399704933167, 0.65161079168319702, 0.51173955202102661, 0.64531362056732178, 0.81778651475906372, 0.10642141103744507, 0.46491855382919312, 0.10939298570156097, 0.33211538195610046, 0.24365955591201782, 0.36132460832595825, 0.63353955745697021, 0.9170602560043335, 0.37639564275741577, 0.89286333322525024, 1.191496729850769, 0.0095734680071473122, -0.25538572669029236, -0.37887153029441833, -0.047165177762508392, 0.14188608527183533, 0.19576291739940643, 0.45404541492462158, 0.40174651145935059, 0.29739260673522949, 0.59571319818496704, 0.43848097324371338, -3.289013693574816e-05, -1.6821843385696411, -0.77068454027175903, 0.10399629920721054, 0.39402252435684204, 0.64794105291366577, 0.47136020660400391, 0.38063102960586548, 0.70363479852676392, 0.40072745084762573, 0.50505805015563965, -0.0015382511774078012, 2.1358253955841064, 0.17467249929904938, 0.50786006450653076, 0.21258796751499176, 0.51046496629714966, 0.5366978645324707, 0.6886257529258728, 0.23463796079158783, 0.64503145217895508, 0.37789669632911682, 
  -0.46484819054603577, 0.13651052117347717, 1.6543694734573364, -0.16828529536724091, -0.66881626844406128, -0.73467224836349487, -0.54265838861465454, -0.78233927488327026, -0.82188522815704346, -0.59945183992385864, -0.47885426878929138, 0.14043813943862915, 0.42418423295021057, -0.37632220983505249, -0.29985898733139038, -0.5426642894744873, -0.74975943565368652, -0.73178613185882568, -0.61086606979370117, -0.54743736982345581, -0.90819340944290161, -0.73739111423492432, -0.38040870428085327, -0.088164284825325012, 0.45665481686592102, 0.078214198350906372, -0.34031131863594055, -0.37326648831367493, -0.12627978622913361, -0.53809595108032227, -0.80697357654571533, -0.22313158214092255, -0.25251802802085876, -0.36780416965484619, 0.38856050372123718, 1.8257344961166382, -0.11902976036071777, -0.8215641975402832, -0.56185781955718994, -0.8591005802154541, -0.82044684886932373, -0.90287965536117554, -0.63472235202789307, -0.76463979482650757, -0.14582352340221405, -0.5787854790687561, -0.074568234384059906, -0.30596864223480225, -0.5665317177772522, -0.3787606954574585, -0.7282525897026062, -0.77137184143066406, -0.71476900577545166, -0.70208203792572021, -0.47895428538322449, 0.024560766294598579, 0.55991154909133911, 0.87949717044830322, -0.3244045078754425, -0.57154417037963867, -0.42650091648101807, -0.33365294337272644, -0.2251570075750351, -0.64016270637512207, -0.45229795575141907, -0.20413693785667419, -0.032921448349952698, -0.062394436448812485, -0.3276762068271637, -0.14835269749164581, -0.29199469089508057, -0.63995522260665894, -0.45231494307518005, -0.39377263188362122, -0.29617795348167419, -0.64132976531982422, -0.37634709477424622, -0.059091515839099884, -0.41848331689834595, 0.94614636898040771, -0.3449828028678894, -0.65042281150817871, -0.39787277579307556, -0.54078805446624756, -0.39812251925468445, -0.45449143648147583, -0.39361143112182617, -0.64057862758636475, -0.09712953120470047, -0.5625985860824585, 1.1724939346313477, -0.23939588665962219, -0.65489566326141357, -0.53686404228210449, -0.37716466188430786, -0.52747297286987305, -0.41097861528396606, -0.37495028972625732, -0.33133262395858765, 
  1.4095405340194702, -0.10423185676336288, -0.48315170407295227, 1.2313591241836548, 1.156283974647522, 1.1733564138412476, 1.1257715225219727, 1.0280696153640747, 0.50872969627380371, 0.59048956632614136, 0.35627633333206177, 0.63471841812133789, -1.3704690933227539, 0.62772268056869507, 0.78569388389587402, 0.85186493396759033, 0.78247988224029541, 1.0644187927246094, 0.78971564769744873, 0.82558727264404297, 0.95297962427139282, 1.3579150438308716, 1.761300802230835, -1.4258264303207397, -1.3200948238372803, 0.86724698543548584, 0.81108206510543823, 0.60773086547851562, 0.22258321940898895, 0.21834972500801086, 0.56390994787216187, 0.025363100692629814, 0.019652202725410461, 1.0932170152664185, -0.026894941926002502, -0.17721843719482422, 0.94310086965560913, 0.68245428800582886, 0.55120337009429932, 1.0111316442489624, 0.7273787260055542, 0.37382170557975769, 0.82006269693374634, 1.0115938186645508, 0.073473475873470306, 1.1503003835678101, 0.23423789441585541, 0.3013969361782074, 0.79227936267852783, 0.5804976224899292, 0.57220739126205444, 0.47306036949157715, 0.72455328702926636, 0.54258978366851807, 0.71547144651412964, -0.097707659006118774, 0.51069051027297974, 0.36238330602645874, 0.50218325853347778, 0.58339983224868774, -0.094359293580055237, 0.14798998832702637, -0.22894415259361267, 0.12834016978740692, -0.53311616182327271, -0.2662835419178009, -0.0048664417117834091, 2.4401185512542725, -1.2920064926147461, 0.42166805267333984, 0.65325403213500977, 0.49623793363571167, 0.69412004947662354, 0.52378743886947632, 0.36897990107536316, 0.56776368618011475, 0.68190550804138184, -0.083852775394916534, -1.1211420297622681, -0.22429096698760986, 0.89444118738174438, 0.36499407887458801, 0.48128312826156616, 0.62376570701599121, 0.47264772653579712, 0.63620638847351074, 0.49789872765541077, 0.61459898948669434, -0.11644504219293594, -0.10763506591320038, -1.0835038423538208, 0.68399477005004883, 0.64739096164703369, 0.30023866891860962, 0.57588297128677368, 0.44775265455245972, 0.27331769466400146, 0.39865007996559143, 0.43120428919792175, 
  -0.22953945398330688, 0.21687674522399902, 0.019350688904523849, -0.017423676326870918, -0.14819802343845367, 0.099690131843090057, -0.22638703882694244, -0.20316557586193085, -0.12436731159687042, 0.085509613156318665, -0.22271007299423218, 0.015558063983917236, -0.020368335768580437, -0.019824020564556122, 0.1270228773355484, -0.26128742098808289, -0.11031161248683929, 0.059295110404491425, 0.045171745121479034, 0.060659367591142654, -0.03978685662150383, -0.18997983634471893, -0.026175277307629585, -0.19134588539600372, -0.04748900979757309, -0.15546944737434387, 0.045452192425727844, -0.0079061714932322502, -0.068775765597820282, -0.066935829818248749, -0.29137533903121948, -0.26779991388320923, -0.28309828042984009, 0.037553474307060242, 0.13828647136688232, 0.018300952389836311, -0.15104655921459198, 0.044917646795511246, -0.103627048432827, 0.073018409311771393, 0.094030924141407013, -0.22229234874248505, 0.082718685269355774, -0.11800487339496613, -0.17446787655353546, 0.066213920712471008, -0.16392937302589417, 0.11621692776679993, -0.17263342440128326, 0.056321576237678528, -0.11993934214115143, 0.030824078246951103, -0.03827885165810585, -0.017892729490995407, -0.049005210399627686, 0.032003015279769897, -0.00054902362171560526, -0.050579946488142014, -0.1238560825586319, -0.27195671200752258, 0.039347659796476364, -0.20764569938182831, -0.25556740164756775, -0.17050932347774506, -0.10482356697320938, 0.014852617867290974, -0.20472277700901031, -0.14809882640838623, -0.17363332211971283, -0.15631628036499023, 0.089489802718162537, -0.12962739169597626, -0.034922301769256592, -0.20433546602725983, -0.18269610404968262, 0.076184801757335663, -0.18438410758972168, -0.17837147414684296, -0.10401978343725204, 0.22375193238258362, -0.050543040037155151, 0.11914154142141342, 0.047231666743755341, -0.20877240598201752, -0.15759368240833282, -0.29809314012527466, -0.19640573859214783, 0.017982874065637589, 0.022000696510076523, 0.23383654654026031, -0.093665421009063721, -0.10947633534669876, -0.086819879710674286, -0.17705917358398438, 0.01050015352666378, -0.097765743732452393, -0.29634198546409607, -0.18581263720989227, -0.10420809686183929, 
  -1.241793155670166, -1.3207770586013794, -0.18907150626182556, -0.54521125555038452, -0.23127342760562897, -0.33341461420059204, -0.46380537748336792, -0.38682037591934204, -0.096585080027580261, -0.18683038651943207, -0.39782172441482544, 0.11101593822240829, 1.2581257820129395, -2.067136287689209, -0.63594228029251099, -0.26897239685058594, -0.21961195766925812, -0.23681545257568359, -0.52936112880706787, -0.33445033431053162, -0.43629005551338196, -0.51659542322158813, -1.1055110692977905, -0.44593024253845215, 0.93796896934509277, -0.82619184255599976, -0.89972162246704102, -0.94612681865692139, -0.82899987697601318, -0.83234065771102905, -0.93557596206665039, -1.1008340120315552, -1.127771258354187, -0.89380568265914917, -1.4885882139205933, -0.1983923465013504, -0.56642544269561768, -0.26475834846496582, -0.48724725842475891, -0.32067123055458069, -0.21997755765914917, 0.14993733167648315, -0.38951891660690308, -0.55538874864578247, 0.45424902439117432, -1.4652160406112671, -2.3212845325469971, -0.30285400152206421, -0.11556236445903778, -0.27035993337631226, -0.10957912355661392, -0.11996237933635712, -0.29305309057235718, -0.21976445615291595, -0.33330729603767395, -0.75524300336837769, 0.2518850564956665, 0.62288355827331543, -0.68540847301483154, -0.72111260890960693, -0.82414275407791138, -0.85071307420730591, -0.82735580205917358, -0.47167980670928955, -0.84579628705978394, -0.89220070838928223, -0.053186990320682526, 1.4191282987594604, 1.4526466131210327, -0.22773061692714691, -0.50868970155715942, -0.60729414224624634, -0.29090487957000732, -0.47632631659507751, -0.3784220814704895, -0.64874327182769775, -0.26217636466026306, -0.16397583484649658, 0.14933286607265472, 0.29061654210090637, -0.3791196346282959, -0.18710464239120483, -0.35055088996887207, -0.68817985057830811, -0.36076813936233521, -0.29623538255691528, -0.43389955163002014, -0.63461613655090332, 0.072262443602085114, -2.9821436405181885, 0.059265643358230591, -0.25579825043678284, -0.1966395378112793, -0.28330779075622559, -0.55097240209579468, -0.51957446336746216, -0.19885939359664917, -0.26143622398376465, -0.20494915544986725, 
  -0.12047730386257172, -0.010094107128679752, -0.18843184411525726, -0.2123638391494751, 0.21851924061775208, -0.071042880415916443, 0.059208247810602188, 0.18018512427806854, -0.10552698373794556, 0.039874821901321411, 0.041836321353912354, 0.073278553783893585, 0.068970747292041779, -0.089746966958045959, -0.057588081806898117, -0.042596146464347839, 0.03193361684679985, -0.013385744765400887, -0.094893269240856171, 0.1989632248878479, -0.18013255298137665, -0.040189791470766068, 0.10280734300613403, -0.20282948017120361, 0.21808990836143494, -0.048944298177957535, -0.1789749413728714, 0.19347262382507324, 0.10834798216819763, 0.093513183295726776, 0.10878002643585205, 0.017374934628605843, 0.01765904575586319, 0.028382452204823494, -0.22085772454738617, -0.18302939832210541, 0.17866864800453186, 0.016418613493442535, -0.2035788893699646, 0.017826588824391365, -0.1946491003036499, 0.11957796663045883, -0.19065409898757935, 0.14873911440372467, 0.18893669545650482, 0.22456920146942139, 0.11468116194009781, 0.17013843357563019, 0.0022941767238080502, -0.18244798481464386, -0.11393781006336212, 0.12545353174209595, -0.12423053383827209, 0.22262178361415863, 0.18770106136798859, -0.16940391063690186, 0.00079890270717442036, -0.04357784241437912, 0.06529410183429718, -0.20371778309345245, 0.14689971506595612, -0.077702783048152924, 0.12409550696611404, 0.14803087711334229, 0.16790035367012024, -0.089066468179225922, -0.10108069330453873, -0.11700612306594849, -0.045646429061889648, 0.023935874924063683, 0.14205682277679443, 0.12804915010929108, -0.23674139380455017, -0.21875134110450745, 0.083514921367168427, 0.14555551111698151, -0.20755496621131897, -0.097114503383636475, 0.11643370240926743, -0.22974324226379395, 0.12754444777965546, -0.24086184799671173, -0.11744944751262665, -0.2403891384601593, 0.13575012981891632, -0.034982394427061081, 0.17645840346813202, -0.21458955109119415, -0.12668910622596741, -0.13312578201293945, 0.04234764352440834, -0.19000169634819031, -0.20132623612880707, 0.15432663261890411, 0.19314996898174286, -0.14164884388446808, 0.11488828063011169, -0.18631961941719055, 0.10596954077482224, 
  -0.14964872598648071, -0.046965882182121277, 0.17861776053905487, 0.19390825927257538, 0.1337646096944809, 0.084195241332054138, -0.0049680918455123901, -0.15088379383087158, -0.060175344347953796, -0.055578470230102539, -0.18851423263549805, -0.14959406852722168, 0.16456179320812225, -0.022310033440589905, -0.096829310059547424, 0.1545899361371994, -0.087849363684654236, -0.036646366119384766, -0.18466717004776001, -0.037488266825675964, 0.13942475616931915, -0.19272637367248535, -0.066734954714775085, 0.21793560683727264, -0.14186915755271912, -0.18633036315441132, 0.16664357483386993, -0.059819340705871582, 0.042900130152702332, -0.013704240322113037, 0.12367887794971466, 0.084719374775886536, 0.1812698096036911, 0.021815091371536255, 0.095037743449211121, 0.1429259330034256, 0.094915643334388733, -0.027761772274971008, 0.049859628081321716, 0.13430409133434296, -0.077163949608802795, -0.21854971349239349, 0.064007148146629333, -0.088312938809394836, 0.21096207201480865, 0.17259518802165985, -0.1679612398147583, 0.10012142360210419, 0.1166185587644577, 0.016901656985282898, 0.019799321889877319, -0.18671560287475586, -0.15922382473945618, -0.099029257893562317, 0.08383844792842865, -0.15981090068817139, 0.029993996024131775, 0.087780788540840149, -0.21040990948677063, 0.067744836211204529, 0.022558480501174927, -0.056593075394630432, 0.21867711842060089, -0.17902126908302307, 0.1639946848154068, 0.082513913512229919, -0.16802811622619629, 0.19709448516368866, -0.15975832939147949, 0.12555746734142303, 0.073268428444862366, -0.11639747023582458, -0.012875452637672424, -0.1823308914899826, 0.19780577719211578, -0.13621166348457336, -0.12631407380104065, -0.12728065252304077, 0.12182639539241791, -0.12043977528810501, -0.16866829991340637, 0.11703084409236908, -0.097615167498588562, -0.2010839581489563, -0.21624276041984558, -0.11511588096618652, 0.00685843825340271, 0.052688077092170715, -0.10701991617679596, 0.041788175702095032, -0.11853482574224472, 0.20377711951732635, 0.046195134520530701, -0.1099114790558815, 0.04288502037525177, 0.19319631159305573, 0.030828282237052917, 0.21579937636852264, -0.040183678269386292, 
  -0.059842150658369064, 0.53460401296615601, -0.80825322866439819, 0.17289941012859344, 0.19894136488437653, 0.10093270987272263, -0.24453011155128479, -0.66116189956665039, -0.18428793549537659, -0.39930197596549988, -0.68099671602249146, -0.36790943145751953, -2.0723745822906494, -2.5219583511352539, 0.29715308547019958, 0.018290339037775993, -0.062699168920516968, -0.4344005286693573, 0.16473996639251709, -0.084467686712741852, 0.057746004313230515, -0.14799791574478149, 0.22875955700874329, -0.61644959449768066, 0.11308445036411285, 0.47291415929794312, 0.66706186532974243, 0.89000612497329712, 0.21445490419864655, 0.043570462614297867, -0.00029582163551822305, -0.027877703309059143, 0.30646666884422302, 0.21080075204372406, 0.83893787860870361, 0.1787894070148468, 0.34736213088035583, 0.061584062874317169, 0.22887060046195984, 0.065673954784870148, -0.084067858755588531, 0.17060908675193787, 0.20105670392513275, 0.046264808624982834, -0.6677510142326355, -0.51752269268035889, -1.1734941005706787, 0.16126306354999542, -0.20710359513759613, -0.4068848192691803, -0.063723012804985046, -0.14691327512264252, -0.40976977348327637, -0.43940737843513489, -0.47057628631591797, 0.1751813143491745, -0.93621826171875, 0.61693215370178223, 0.22433139383792877, 0.24668800830841064, 0.48770862817764282, 0.3781815767288208, 0.70127129554748535, 0.58048838376998901, 0.68221253156661987, 1.0151221752166748, 0.035456974059343338, 0.62887132167816162, -1.6673824787139893, 0.066193707287311554, 0.29701697826385498, 0.039903242141008377, 0.18763215839862823, 0.083267033100128174, -0.060978226363658905, 0.31653189659118652, 0.28653824329376221, -0.0097853885963559151, -0.62485301494598389, -1.008729100227356, 0.21558468043804169, 0.36005061864852905, 0.15469262003898621, 0.21558485925197601, 0.020493574440479279, 0.38311842083930969, 0.19191674888134003, 0.35357904434204102, -0.28030198812484741, 0.66562944650650024, -1.4220486879348755, 0.14582273364067078, 0.28934642672538757, -0.0039547784253954887, 0.31966960430145264, 0.36975905299186707, 0.25440746545791626, 0.40957105159759521, 0.41696262359619141, 
};
const TfArray<2, int> tensor_dimension4 = { 2, { 20,99 } };
const ALIGN(16) float tensor_data5[10*20] = { 
  -0.28366321325302124, -0.014016687870025635, 0.10238280892372131, 0.27021783590316772, 0.22921629250049591, -0.42935329675674438, -0.10549691319465637, 0.052286576479673386, -0.36281353235244751, -0.070081502199172974, -0.047141175717115402, -0.23889452219009399, 0.28421539068222046, 0.26971489191055298, -0.19739744067192078, -0.013355516828596592, -0.39916282892227173, 0.070205636322498322, -0.12740728259086609, 0.059637919068336487, 
  -0.35458394885063171, 0.062615931034088135, -0.2165655642747879, 0.22663119435310364, 0.10580015182495117, -0.0028579928912222385, 0.30821490287780762, -0.18902638554573059, -0.14192365109920502, -0.3231237530708313, -0.013542015105485916, -0.31521004438400269, -0.12237156182527542, -0.13121494650840759, -0.33105406165122986, -0.29742291569709778, -0.18754786252975464, 0.2822265625, 0.20760005712509155, -0.36843103170394897, 
  -0.38745355606079102, 0.31785285472869873, 0.10381579399108887, -0.22245311737060547, -0.0049400478601455688, 0.0051631391979753971, 0.11924205720424652, -0.23268525302410126, 0.28063839673995972, 0.36759480834007263, -0.19190399348735809, -0.42740723490715027, 0.015240157023072243, -0.40760600566864014, -0.21693266928195953, -0.13432557880878448, -0.10057831555604935, 0.42122942209243774, -0.38097769021987915, -0.17866292595863342, 
  0.05572935938835144, -0.088203370571136475, -0.27911040186882019, -0.22520749270915985, -1.1577985286712646, 0.1128559485077858, 0.33201318979263306, 0.013918547891080379, 0.40084898471832275, -0.11733248829841614, 0.14387531578540802, -0.84406346082687378, -0.077397555112838745, -0.13691754639148712, -0.22845779359340668, 0.41798955202102661, 0.63229745626449585, 0.12087708711624146, 0.1122550368309021, -0.20489394664764404, 
  -0.068917132914066315, 0.019939761608839035, -0.23178304731845856, -0.3453974723815918, 0.29781216382980347, -1.0492668151855469, -0.20877262949943542, 0.051104191690683365, -0.26367232203483582, 0.32351371645927429, 0.1866433173418045, -0.89272552728652954, -0.34176608920097351, 0.022464297711849213, 0.26750266551971436, 0.081021785736083984, -0.081722602248191833, -0.38482159376144409, 0.41780859231948853, 0.17533072829246521, 
  -0.0065661249682307243, 0.34905964136123657, -0.34178513288497925, 0.0067205713130533695, -0.29656919836997986, -0.18715199828147888, -0.018210604786872864, -0.21621641516685486, 0.40578079223632812, -0.60872519016265869, -0.58145147562026978, 0.37292248010635376, -0.39610940217971802, 0.15068462491035461, -0.21736885607242584, 0.33839470148086548, -0.45488530397415161, -0.034634679555892944, -0.36985573172569275, 0.25418797135353088, 
  0.15141101181507111, -0.14074701070785522, 0.049364060163497925, 0.26846721768379211, 0.4001726508140564, -0.05651773139834404, 0.014488194137811661, -0.0070899245329201221, 0.16844689846038818, 0.369466632604599, 0.1045854315161705, 0.50269472599029541, -0.21149201691150665, -0.41405302286148071, 0.57998508214950562, 0.017249591648578644, 0.83665955066680908, -0.090127915143966675, 0.15623247623443604, -0.50246840715408325, 
  -0.40298914909362793, 0.3651120662689209, -0.23938150703907013, -0.33507299423217773, -0.049478169530630112, -0.070003718137741089, -0.18556062877178192, -0.41321372985839844, 0.39064010977745056, 0.17363737523555756, -0.0010874717263504863, 0.38940721750259399, -0.24115389585494995, -0.027024269104003906, -0.16514566540718079, -0.16529113054275513, -0.32752782106399536, 0.069599449634552002, -0.17828625440597534, 0.16064774990081787, 
  -0.52987265586853027, 0.2880551815032959, 0.029932709410786629, 0.17071494460105896, 0.31866049766540527, -0.22826997935771942, 0.18955506384372711, -0.5005500316619873, -0.033076316118240356, -0.41405656933784485, -0.084430038928985596, 0.23428729176521301, 0.10622942447662354, 0.30978387594223022, -0.090806342661380768, 0.17835305631160736, -0.42089360952377319, 0.37203201651573181, -0.0054910182952880859, -0.021673614159226418, 
  -0.43630689382553101, 0.13775122165679932, 0.088280335068702698, 0.240203857421875, -0.30595025420188904, -0.00067445245804265141, 0.2007841020822525, -0.28578457236289978, 0.29146748781204224, -0.21387492120265961, -0.5544508695602417, 0.1136455312371254, -0.53855234384536743, -0.16970255970954895, -0.34909623861312866, 0.016769079491496086, 0.10474848747253418, 0.38693976402282715, -0.14276808500289917, 0.34802207350730896, 
};
const TfArray<2, int> tensor_dimension5 = { 2, { 10,20 } };
const ALIGN(16) float tensor_data6[6*10] = { 
  -0.68429404497146606, -0.64540928602218628, 0.25740286707878113, 0.27188712358474731, 0.45100653171539307, -0.24461844563484192, 0.13902366161346436, 0.37627029418945312, -0.18516187369823456, -0.15154488384723663, 
  -1.1554487943649292, 0.47631767392158508, 0.11627359688282013, -0.43685606122016907, 0.29202431440353394, -0.36985740065574646, 0.34052014350891113, -0.33876931667327881, -0.56861519813537598, -0.0032081622630357742, 
  -0.8371005654335022, 0.021260486915707588, 0.51380300521850586, -0.37450546026229858, -0.19555807113647461, -0.17948262393474579, 0.43394705653190613, -0.041097093373537064, -0.50342726707458496, 0.44944500923156738, 
  -1.7736504077911377, 0.42656472325325012, -0.62747102975845337, 0.14253593981266022, -0.14005239307880402, 0.14441755414009094, 0.34509971737861633, -0.067979954183101654, 0.30998441576957703, -0.23773820698261261, 
  -0.6033443808555603, -0.27216875553131104, -0.2374102771282196, 0.24343347549438477, 0.11251761764287949, 0.08523423969745636, 0.25933834910392761, 0.21806737780570984, 0.30279403924942017, -0.089209988713264465, 
  -0.17772069573402405, 0.22807303071022034, -0.016367627307772636, -0.096920661628246307, -0.23656387627124786, -0.57266396284103394, 0.26767584681510925, -0.36903366446495056, 0.40782755613327026, -0.2450173944234848, 
};
const TfArray<2, int> tensor_dimension6 = { 2, { 6,10 } };
const TfArray<2, int> tensor_dimension7 = { 2, { 1,20 } };
const TfArray<2, int> tensor_dimension8 = { 2, { 1,10 } };
const TfArray<2, int> tensor_dimension9 = { 2, { 1,6 } };
const TfArray<2, int> tensor_dimension10 = { 2, { 1,6 } };
const TfLiteFullyConnectedParams opdata0 = { kTfLiteActRelu, kTfLiteFullyConnectedWeightsFormatDefault, false, false };
const TfArray<3, int> inputs0 = { 3, { 0,4,3 } };
const TfArray<1, int> outputs0 = { 1, { 7 } };
const TfLiteFullyConnectedParams opdata1 = { kTfLiteActRelu, kTfLiteFullyConnectedWeightsFormatDefault, false, false };
const TfArray<3, int> inputs1 = { 3, { 7,5,2 } };
const TfArray<1, int> outputs1 = { 1, { 8 } };
const TfLiteFullyConnectedParams opdata2 = { kTfLiteActNone, kTfLiteFullyConnectedWeightsFormatDefault, false, false };
const TfArray<3, int> inputs2 = { 3, { 8,6,1 } };
const TfArray<1, int> outputs2 = { 1, { 9 } };
const TfLiteSoftmaxParams opdata3 = { 1 };
const TfArray<1, int> inputs3 = { 1, { 9 } };
const TfArray<1, int> outputs3 = { 1, { 10 } };
const TensorInfo_t tensorData[] = {
  { kTfLiteArenaRw, tensor_arena + 0, (TfLiteIntArray*)&tensor_dimension0, 396, },
  { kTfLiteMmapRo, (void*)tensor_data1, (TfLiteIntArray*)&tensor_dimension1, 24, },
  { kTfLiteMmapRo, (void*)tensor_data2, (TfLiteIntArray*)&tensor_dimension2, 40, },
  { kTfLiteMmapRo, (void*)tensor_data3, (TfLiteIntArray*)&tensor_dimension3, 80, },
  { kTfLiteMmapRo, (void*)tensor_data4, (TfLiteIntArray*)&tensor_dimension4, 7920, },
  { kTfLiteMmapRo, (void*)tensor_data5, (TfLiteIntArray*)&tensor_dimension5, 800, },
  { kTfLiteMmapRo, (void*)tensor_data6, (TfLiteIntArray*)&tensor_dimension6, 240, },
  { kTfLiteArenaRw, tensor_arena + 400, (TfLiteIntArray*)&tensor_dimension7, 80, },
  { kTfLiteArenaRw, tensor_arena + 0, (TfLiteIntArray*)&tensor_dimension8, 40, },
  { kTfLiteArenaRw, tensor_arena + 48, (TfLiteIntArray*)&tensor_dimension9, 24, },
  { kTfLiteArenaRw, tensor_arena + 0, (TfLiteIntArray*)&tensor_dimension10, 24, },
};const NodeInfo_t nodeData[] = {
  { (TfLiteIntArray*)&inputs0, (TfLiteIntArray*)&outputs0, const_cast<void*>(static_cast<const void*>(&opdata0)), OP_FULLY_CONNECTED, },
  { (TfLiteIntArray*)&inputs1, (TfLiteIntArray*)&outputs1, const_cast<void*>(static_cast<const void*>(&opdata1)), OP_FULLY_CONNECTED, },
  { (TfLiteIntArray*)&inputs2, (TfLiteIntArray*)&outputs2, const_cast<void*>(static_cast<const void*>(&opdata2)), OP_FULLY_CONNECTED, },
  { (TfLiteIntArray*)&inputs3, (TfLiteIntArray*)&outputs3, const_cast<void*>(static_cast<const void*>(&opdata3)), OP_SOFTMAX, },
};
static void* overflow_buffers[EI_MAX_OVERFLOW_BUFFER_COUNT];
static size_t overflow_buffers_ix = 0;
static void * AllocatePersistentBuffer(struct TfLiteContext* ctx,
                                       size_t bytes) {
  void *ptr;
  if (current_location - bytes < tensor_boundary) {
    if (overflow_buffers_ix > EI_MAX_OVERFLOW_BUFFER_COUNT - 1) {
      ei_printf("ERR: Failed to allocate persistent buffer of size %d, does not fit in tensor arena and reached EI_MAX_OVERFLOW_BUFFER_COUNT\n",
        (int)bytes);
      return NULL;
    }

    // OK, this will look super weird, but.... we have CMSIS-NN buffers which
    // we cannot calculate beforehand easily.
    ptr = ei_calloc(bytes, 1);
    if (ptr == NULL) {
      ei_printf("ERR: Failed to allocate persistent buffer of size %d\n", (int)bytes);
      return NULL;
    }
    overflow_buffers[overflow_buffers_ix++] = ptr;
    return ptr;
  }

  current_location -= bytes;

  ptr = current_location;
  memset(ptr, 0, bytes);

  return ptr;
}
typedef struct {
  size_t bytes;
  void *ptr;
} scratch_buffer_t;
static scratch_buffer_t scratch_buffers[EI_MAX_SCRATCH_BUFFER_COUNT];
static size_t scratch_buffers_ix = 0;

static TfLiteStatus RequestScratchBufferInArena(struct TfLiteContext* ctx, size_t bytes,
                                                int* buffer_idx) {
  if (scratch_buffers_ix > EI_MAX_SCRATCH_BUFFER_COUNT - 1) {
    ei_printf("ERR: Failed to allocate scratch buffer of size %d, reached EI_MAX_SCRATCH_BUFFER_COUNT\n",
      (int)bytes);
    return kTfLiteError;
  }

  scratch_buffer_t b;
  b.bytes = bytes;

  b.ptr = AllocatePersistentBuffer(ctx, b.bytes);
  if (!b.ptr) {
    ei_printf("ERR: Failed to allocate scratch buffer of size %d\n",
      (int)bytes);
    return kTfLiteError;
  }

  scratch_buffers[scratch_buffers_ix] = b;
  *buffer_idx = scratch_buffers_ix;

  scratch_buffers_ix++;

  return kTfLiteOk;
}

static void* GetScratchBuffer(struct TfLiteContext* ctx, int buffer_idx) {
  if (buffer_idx > (int)scratch_buffers_ix) {
    return NULL;
  }
  return scratch_buffers[buffer_idx].ptr;
}

static TfLiteTensor* GetTensor(const struct TfLiteContext* context,
                               int tensor_idx) {
  return &tflTensors[tensor_idx];
}

static TfLiteEvalTensor* GetEvalTensor(const struct TfLiteContext* context,
                                       int tensor_idx) {
  return &tflEvalTensors[tensor_idx];
}

} // namespace

TfLiteStatus trained_model_init( void*(*alloc_fnc)(size_t,size_t) ) {
#ifdef EI_CLASSIFIER_ALLOCATION_HEAP
  tensor_arena = (uint8_t*) alloc_fnc(16, kTensorArenaSize);
  if (!tensor_arena) {
    ei_printf("ERR: failed to allocate tensor arena\n");
    return kTfLiteError;
  }
#else
  memset(tensor_arena, 0, kTensorArenaSize);
#endif
  tensor_boundary = tensor_arena;
  current_location = tensor_arena + kTensorArenaSize;
  ctx.AllocatePersistentBuffer = &AllocatePersistentBuffer;
  ctx.RequestScratchBufferInArena = &RequestScratchBufferInArena;
  ctx.GetScratchBuffer = &GetScratchBuffer;
  ctx.GetTensor = &GetTensor;
  ctx.GetEvalTensor = &GetEvalTensor;
  ctx.tensors = tflTensors;
  ctx.tensors_size = 11;
  for (size_t i = 0; i < 11; ++i) {
    tflTensors[i].type = kTfLiteFloat32;
    tflEvalTensors[i].type = kTfLiteFloat32;
    tflTensors[i].is_variable = 0;

#if defined(EI_CLASSIFIER_ALLOCATION_HEAP)
    tflTensors[i].allocation_type = tensorData[i].allocation_type;
#else
    tflTensors[i].allocation_type = (tensor_arena <= tensorData[i].data && tensorData[i].data < tensor_arena + kTensorArenaSize) ? kTfLiteArenaRw : kTfLiteMmapRo;
#endif
    tflTensors[i].bytes = tensorData[i].bytes;
    tflTensors[i].dims = tensorData[i].dims;
    tflEvalTensors[i].dims = tensorData[i].dims;

#if defined(EI_CLASSIFIER_ALLOCATION_HEAP)
    if(tflTensors[i].allocation_type == kTfLiteArenaRw){
      uint8_t* start = (uint8_t*) ((uintptr_t)tensorData[i].data + (uintptr_t) tensor_arena);

     tflTensors[i].data.data =  start;
     tflEvalTensors[i].data.data =  start;
    }
    else {
       tflTensors[i].data.data = tensorData[i].data;
       tflEvalTensors[i].data.data = tensorData[i].data;
    }
#else
    tflTensors[i].data.data = tensorData[i].data;
    tflEvalTensors[i].data.data = tensorData[i].data;
#endif // EI_CLASSIFIER_ALLOCATION_HEAP
    tflTensors[i].quantization.type = kTfLiteNoQuantization;
    if (tflTensors[i].allocation_type == kTfLiteArenaRw) {
      auto data_end_ptr = (uint8_t*)tflTensors[i].data.data + tensorData[i].bytes;
      if (data_end_ptr > tensor_boundary) {
        tensor_boundary = data_end_ptr;
      }
    }
  }
  if (tensor_boundary > current_location /* end of arena size */) {
    ei_printf("ERR: tensor arena is too small, does not fit model - even without scratch buffers\n");
    return kTfLiteError;
  }
  registrations[OP_FULLY_CONNECTED] = Register_FULLY_CONNECTED();
  registrations[OP_SOFTMAX] = Register_SOFTMAX();

  for (size_t i = 0; i < 4; ++i) {
    tflNodes[i].inputs = nodeData[i].inputs;
    tflNodes[i].outputs = nodeData[i].outputs;
    tflNodes[i].builtin_data = nodeData[i].builtin_data;
tflNodes[i].custom_initial_data = nullptr;
      tflNodes[i].custom_initial_data_size = 0;
if (registrations[nodeData[i].used_op_index].init) {
      tflNodes[i].user_data = registrations[nodeData[i].used_op_index].init(&ctx, (const char*)tflNodes[i].builtin_data, 0);
    }
  }
  for (size_t i = 0; i < 4; ++i) {
    if (registrations[nodeData[i].used_op_index].prepare) {
      TfLiteStatus status = registrations[nodeData[i].used_op_index].prepare(&ctx, &tflNodes[i]);
      if (status != kTfLiteOk) {
        return status;
      }
    }
  }
  return kTfLiteOk;
}

static const int inTensorIndices[] = {
  0, 
};
TfLiteTensor* trained_model_input(int index) {
  return &ctx.tensors[inTensorIndices[index]];
}

static const int outTensorIndices[] = {
  10, 
};
TfLiteTensor* trained_model_output(int index) {
  return &ctx.tensors[outTensorIndices[index]];
}

TfLiteStatus trained_model_invoke() {
  for (size_t i = 0; i < 4; ++i) {
    TfLiteStatus status = registrations[nodeData[i].used_op_index].invoke(&ctx, &tflNodes[i]);

#if EI_CLASSIFIER_PRINT_STATE
    ei_printf("layer %lu\n", i);
    ei_printf("    inputs:\n");
    for (size_t ix = 0; ix < tflNodes[i].inputs->size; ix++) {
      auto d = tensorData[tflNodes[i].inputs->data[ix]];

      size_t data_ptr = (size_t)d.data;

      if (d.allocation_type == kTfLiteArenaRw) {
        data_ptr = (size_t)tensor_arena + data_ptr;
      }

      if (d.type == TfLiteType::kTfLiteInt8) {
        int8_t* data = (int8_t*)data_ptr;
        ei_printf("        %lu (%zu bytes, ptr=%p, alloc_type=%d, type=%d): ", ix, d.bytes, data, (int)d.allocation_type, (int)d.type);
        for (size_t jx = 0; jx < d.bytes; jx++) {
          ei_printf("%d ", data[jx]);
        }
      }
      else {
        float* data = (float*)data_ptr;
        ei_printf("        %lu (%zu bytes, ptr=%p, alloc_type=%d, type=%d): ", ix, d.bytes, data, (int)d.allocation_type, (int)d.type);
        for (size_t jx = 0; jx < d.bytes / 4; jx++) {
          ei_printf("%f ", data[jx]);
        }
      }
      ei_printf("\n");
    }
    ei_printf("\n");

    ei_printf("    outputs:\n");
    for (size_t ix = 0; ix < tflNodes[i].outputs->size; ix++) {
      auto d = tensorData[tflNodes[i].outputs->data[ix]];

      size_t data_ptr = (size_t)d.data;

      if (d.allocation_type == kTfLiteArenaRw) {
        data_ptr = (size_t)tensor_arena + data_ptr;
      }

      if (d.type == TfLiteType::kTfLiteInt8) {
        int8_t* data = (int8_t*)data_ptr;
        ei_printf("        %lu (%zu bytes, ptr=%p, alloc_type=%d, type=%d): ", ix, d.bytes, data, (int)d.allocation_type, (int)d.type);
        for (size_t jx = 0; jx < d.bytes; jx++) {
          ei_printf("%d ", data[jx]);
        }
      }
      else {
        float* data = (float*)data_ptr;
        ei_printf("        %lu (%zu bytes, ptr=%p, alloc_type=%d, type=%d): ", ix, d.bytes, data, (int)d.allocation_type, (int)d.type);
        for (size_t jx = 0; jx < d.bytes / 4; jx++) {
          ei_printf("%f ", data[jx]);
        }
      }
      ei_printf("\n");
    }
    ei_printf("\n");
#endif // EI_CLASSIFIER_PRINT_STATE

    if (status != kTfLiteOk) {
      return status;
    }
  }
  return kTfLiteOk;
}

TfLiteStatus trained_model_reset( void (*free_fnc)(void* ptr) ) {
#ifdef EI_CLASSIFIER_ALLOCATION_HEAP
  free_fnc(tensor_arena);
#endif

  // scratch buffers are allocated within the arena, so just reset the counter so memory can be reused
  scratch_buffers_ix = 0;

  // overflow buffers are on the heap, so free them first
  for (size_t ix = 0; ix < overflow_buffers_ix; ix++) {
    ei_free(overflow_buffers[ix]);
  }
  overflow_buffers_ix = 0;
  return kTfLiteOk;
}
